SNNS network definition file V1.4-3D
generated at Mon Jan 04 12:30:30 2021

network name : practica5
source files :
no. of units : 69
no. of connections : 590
no. of unit types : 0
no. of site types : 0


learning function : Std_Backpropagation
update function   : Topological_Order


unit default section :

act      | bias     | st | subnet | layer | act func     | out func
---------|----------|----|--------|-------|--------------|-------------
 0.00000 |  0.00000 | h  |      0 |     1 | Act_Logistic | Out_Identity 
---------|----------|----|--------|-------|--------------|-------------


unit definition section :

no. | typeName | unitName | act      | bias     | st | position | act func | out func | sites
----|----------|----------|----------|----------|----|----------|----------|----------|-------
  1 |          | noName   |  0.00000 | -0.95727 | i  |  1, 1, 1 |||
  2 |          | noName   |  0.00000 | -0.17893 | i  |  2, 1, 1 |||
  3 |          | noName   |  0.00000 | -0.68914 | i  |  3, 1, 1 |||
  4 |          | noName   |  0.00000 |  0.47960 | i  |  4, 1, 1 |||
  5 |          | noName   |  0.00000 | -0.27799 | i  |  5, 1, 1 |||
  6 |          | noName   |  0.00000 | -0.24021 | i  |  1, 2, 1 |||
  7 |          | noName   |  0.00000 | -0.68096 | i  |  2, 2, 1 |||
  8 |          | noName   |  0.00000 | -0.27989 | i  |  3, 2, 1 |||
  9 |          | noName   |  0.00000 | -0.00974 | i  |  4, 2, 1 |||
 10 |          | noName   |  0.00000 | -0.36985 | i  |  5, 2, 1 |||
 11 |          | noName   |  0.00000 | -0.25083 | i  |  1, 3, 1 |||
 12 |          | noName   |  0.00000 |  0.10678 | i  |  2, 3, 1 |||
 13 |          | noName   |  0.00000 |  0.39683 | i  |  3, 3, 1 |||
 14 |          | noName   |  0.00000 | -0.08213 | i  |  4, 3, 1 |||
 15 |          | noName   |  0.00000 | -0.25718 | i  |  5, 3, 1 |||
 16 |          | noName   |  0.00000 | -0.58116 | i  |  1, 4, 1 |||
 17 |          | noName   |  0.00000 |  0.99158 | i  |  2, 4, 1 |||
 18 |          | noName   |  0.00000 | -0.68969 | i  |  3, 4, 1 |||
 19 |          | noName   |  0.00000 | -0.27311 | i  |  4, 4, 1 |||
 20 |          | noName   |  0.00000 | -0.09189 | i  |  5, 4, 1 |||
 21 |          | noName   |  0.00000 | -0.57744 | i  |  1, 5, 1 |||
 22 |          | noName   |  0.00000 |  0.65319 | i  |  2, 5, 1 |||
 23 |          | noName   |  0.00000 |  0.79449 | i  |  3, 5, 1 |||
 24 |          | noName   |  0.00000 |  0.40532 | i  |  4, 5, 1 |||
 25 |          | noName   |  0.00000 | -0.13370 | i  |  5, 5, 1 |||
 26 |          | noName   |  0.00000 |  0.41026 | i  |  1, 6, 1 |||
 27 |          | noName   |  0.00000 | -0.42552 | i  |  2, 6, 1 |||
 28 |          | noName   |  0.00000 | -0.03775 | i  |  3, 6, 1 |||
 29 |          | noName   |  0.00000 | -0.64800 | i  |  4, 6, 1 |||
 30 |          | noName   |  0.00000 | -0.05960 | i  |  5, 6, 1 |||
 31 |          | noName   |  0.00000 | -0.34831 | i  |  1, 7, 1 |||
 32 |          | noName   |  0.00000 | -0.15867 | i  |  2, 7, 1 |||
 33 |          | noName   |  0.00000 | -0.95703 | i  |  3, 7, 1 |||
 34 |          | noName   |  0.00000 | -0.09726 | i  |  4, 7, 1 |||
 35 |          | noName   |  0.00000 | -0.39976 | i  |  5, 7, 1 |||
 36 |          | noName   |  0.00000 | -0.33525 | h  |  9, 1, 1 |||
 37 |          | noName   |  0.00000 |  0.52715 | h  |  9, 2, 1 |||
 38 |          | noName   |  0.00000 |  0.73412 | h  |  9, 3, 1 |||
 39 |          | noName   |  0.00000 | -0.85040 | h  |  9, 4, 1 |||
 40 |          | noName   |  0.00000 |  0.65355 | h  |  9, 5, 1 |||
 41 |          | noName   |  0.00000 |  0.40648 | h  |  9, 6, 1 |||
 42 |          | noName   |  0.00000 | -0.91272 | h  |  9, 7, 1 |||
 43 |          | noName   |  0.00000 | -0.58397 | h  |  9, 8, 1 |||
 44 |          | noName   |  0.00000 | -0.72600 | h  |  9, 9, 1 |||
 45 |          | noName   |  0.00000 | -0.26554 | h  |  9,10, 1 |||
 46 |          | noName   |  0.00000 | -0.68419 | o  | 14, 1, 1 |||
 47 |          | noName   |  0.00000 |  0.54399 | o  | 15, 1, 1 |||
 48 |          | noName   |  0.00000 |  0.67199 | o  | 16, 1, 1 |||
 49 |          | noName   |  0.00000 | -0.59148 | o  | 17, 1, 1 |||
 50 |          | noName   |  0.00000 |  0.37400 | o  | 14, 2, 1 |||
 51 |          | noName   |  0.00000 | -0.38096 | o  | 15, 2, 1 |||
 52 |          | noName   |  0.00000 | -0.04642 | o  | 16, 2, 1 |||
 53 |          | noName   |  0.00000 |  0.26865 | o  | 17, 2, 1 |||
 54 |          | noName   |  0.00000 | -0.45470 | o  | 14, 3, 1 |||
 55 |          | noName   |  0.00000 |  0.87573 | o  | 15, 3, 1 |||
 56 |          | noName   |  0.00000 |  0.47093 | o  | 16, 3, 1 |||
 57 |          | noName   |  0.00000 |  0.19773 | o  | 17, 3, 1 |||
 58 |          | noName   |  0.00000 |  0.76116 | o  | 14, 4, 1 |||
 59 |          | noName   |  0.00000 | -0.89483 | o  | 15, 4, 1 |||
 60 |          | noName   |  0.00000 | -0.14591 | o  | 16, 4, 1 |||
 61 |          | noName   |  0.00000 | -0.28495 | o  | 17, 4, 1 |||
 62 |          | noName   |  0.00000 |  0.46452 | o  | 14, 5, 1 |||
 63 |          | noName   |  0.00000 | -0.24888 | o  | 15, 5, 1 |||
 64 |          | noName   |  0.00000 | -0.53594 | o  | 16, 5, 1 |||
 65 |          | noName   |  0.00000 |  0.33830 | o  | 17, 5, 1 |||
 66 |          | noName   |  0.00000 | -0.19285 | o  | 14, 6, 1 |||
 67 |          | noName   |  0.00000 |  0.39470 | o  | 15, 6, 1 |||
 68 |          | noName   |  0.00000 |  0.31809 | o  | 16, 6, 1 |||
 69 |          | noName   |  0.00000 |  0.71044 | o  | 17, 6, 1 |||
----|----------|----------|----------|----------|----|----------|----------|----------|-------


connection definition section :

target | site | source:weight
-------|------|---------------------------------------------------------------------------------------------------------------------
    36 |      | 35:-0.96210, 34: 0.10385, 33: 0.69280, 32: 0.53752, 31: 0.25382, 30: 0.09854, 29: 0.34806, 28: 0.95428, 27:-0.04654,
                26: 0.85699, 25: 0.37925, 24: 0.30473, 23: 0.48039, 22: 0.81091, 21: 0.10526, 20:-0.21097, 19:-0.23746, 18: 0.59111,
                17:-0.61144, 16:-0.44444, 15:-0.85119, 14:-0.23093, 13:-0.33964, 12:-0.12607, 11:-0.86023, 10:-0.08542,  9:-0.00272,
                 8:-0.84399,  7: 0.57524,  6:-0.71728,  5: 0.31095,  4: 0.63665,  3:-0.15848,  2:-0.55815,  1: 0.71355
    37 |      | 35:-0.33915, 34:-0.84411, 33:-0.87866, 32:-0.54582, 31: 0.02530, 30:-0.16733, 29: 0.15983, 28:-0.00381, 27: 0.83746,
                26:-0.14878, 25:-0.56932, 24: 0.12973, 23: 0.82092, 22: 0.08084, 21: 0.20615, 20:-0.60125, 19: 0.26261, 18:-0.09641,
                17: 0.61046, 16:-0.38096, 15: 0.15006, 14: 0.05350, 13: 0.35264, 12: 0.92999, 11:-0.73492, 10:-0.41539,  9:-0.92755,
                 8:-0.99310,  7:-0.20267,  6:-0.71978,  5:-0.63781,  4: 0.24607,  3:-0.95996,  2: 0.81652,  1: 0.52666
    38 |      | 35:-0.27006, 34:-0.00809, 33: 0.14371, 32:-0.18394, 31: 0.59453, 30:-0.66387, 29:-0.51128, 28: 0.07327, 27:-0.33158,
                26: 0.41002, 25:-0.11563, 24: 0.52336, 23:-0.05753, 22:-0.89074, 21: 0.03842, 20: 0.85626, 19:-0.09330, 18: 0.28544,
                17:-0.56706, 16:-0.48289, 15: 0.55046, 14: 0.99445, 13:-0.17338, 12:-0.54997, 11:-0.61754, 10: 0.68773,  9:-0.06766,
                 8: 0.31400,  7:-0.96753,  6:-0.34318,  5:-0.66619,  4: 0.98389,  3: 0.99768,  2: 0.04416,  1: 0.70244
    39 |      | 35: 0.09580, 34: 0.73296, 33: 0.37761, 32:-0.17484, 31: 0.18851, 30: 0.42869, 29: 0.37297, 28:-0.41984, 27: 0.73589,
                26: 0.24412, 25:-0.12949, 24: 0.30674, 23: 0.74609, 22: 0.10099, 21:-0.73388, 20:-0.66607, 19:-0.31816, 18: 0.26066,
                17: 0.82788, 16:-0.29722, 15:-0.11356, 14: 0.29575, 13:-0.97015, 12:-0.58702, 11: 0.09177, 10: 0.81622,  9: 0.62554,
                 8:-0.54405,  7: 0.57103,  6: 0.26139,  5:-0.47984,  4:-0.55547,  3:-0.50194,  2: 0.07138,  1: 0.50792
    40 |      | 35:-0.92315, 34: 0.54949, 33: 0.93408, 32:-0.71746, 31:-0.99744, 30: 0.72839, 29: 0.34556, 28:-0.24583, 27:-0.18284,
                26: 0.55351, 25:-0.80749, 24: 0.85955, 23:-0.27775, 22: 0.69439, 21: 0.64306, 20: 0.56444, 19:-0.58873, 18: 0.29807,
                17: 0.57329, 16: 0.28776, 15: 0.48405, 14:-0.00388, 13:-0.20328, 12: 0.46532, 11: 0.00522, 10: 0.47807,  9:-0.40660,
                 8: 0.21110,  7: 0.77050,  6:-0.05618,  5: 0.60283,  4: 0.88891,  3:-0.15812,  2: 0.74749,  1: 0.14243
    41 |      | 35: 0.91510, 34: 0.54509, 33: 0.01480, 32: 0.04477, 31:-0.91858, 30: 0.25858, 29:-0.13504, 28: 0.63530, 27:-0.45286,
                26: 0.16910, 25: 0.15152, 24:-0.10318, 23: 0.87164, 22: 0.45116, 21:-0.20652, 20:-0.25462, 19: 0.28788, 18:-0.53911,
                17: 0.55498, 16:-0.61064, 15:-0.33207, 14: 0.09116, 13:-0.76873, 12:-0.97797, 11:-0.30509, 10:-0.49510,  9:-0.30210,
                 8:-0.07566,  7: 0.80432,  6: 0.56029,  5:-0.11472,  4:-0.20981,  3: 0.45805,  2: 0.23954,  1:-0.25797
    42 |      | 35:-0.68731, 34:-0.60546, 33:-0.75134, 32:-0.73473, 31:-0.15543, 30:-0.87909, 29: 0.54534, 28: 0.62426, 27:-0.00558,
                26: 0.07370, 25:-0.76611, 24: 0.65551, 23:-0.60564, 22: 0.03708, 21: 0.92029, 20: 0.66814, 19: 0.73943, 18: 0.06015,
                17: 0.05539, 16:-0.48729, 15:-0.13456, 14: 0.47203, 13:-0.85858, 12: 0.21549, 11:-0.90265, 10:-0.91205,  9:-0.63768,
                 8: 0.33470,  7:-0.57103,  6: 0.91980,  5: 0.70348,  4:-0.14713,  3: 0.09751,  2:-0.29789,  1: 0.62169
    43 |      | 35:-0.88507, 34: 0.54833, 33:-0.67132, 32: 0.73357, 31:-0.68078, 30: 0.04721, 29: 0.75060, 28:-0.04984, 27:-0.49278,
                26:-0.88610, 25:-0.77496, 24:-0.19608, 23:-0.78777, 22: 0.90710, 21: 0.99982, 20:-0.61925, 19: 0.68896, 18:-0.87506,
                17: 0.59398, 16:-0.71972, 15: 0.66698, 14: 0.99329, 13:-0.91424, 12:-0.99677, 11:-0.56230, 10: 0.25614,  9: 0.38798,
                 8: 0.37516,  7:-0.16532,  6: 0.48442,  5: 0.57414,  4:-0.18351,  3:-0.32871,  2: 0.01236,  1: 0.31864
    44 |      | 35: 0.19822, 34: 0.81549, 33:-0.48802, 32: 0.62420, 31: 0.14249, 30: 0.64306, 29: 0.11447, 28:-0.63823, 27:-0.10831,
                26: 0.71630, 25: 0.31101, 24: 0.38652, 23:-0.61547, 22: 0.30595, 21: 0.02866, 20:-0.30064, 19: 0.27140, 18: 0.50108,
                17: 0.88031, 16: 0.82189, 15:-0.09336, 14: 0.48149, 13: 0.59673, 12:-0.24961, 11:-0.26426, 10: 0.60729,  9:-0.99109,
                 8:-0.74187,  7:-0.36088,  6:-0.36351,  5:-0.35551,  4: 0.35752,  3: 0.79577,  2: 0.38481,  1:-0.00107
    45 |      | 35: 0.62877, 34:-0.86145, 33: 0.54601, 32: 0.96912, 31: 0.39531, 30:-0.86523, 29:-0.45177, 28: 0.35270, 27: 0.98407,
                26:-0.58019, 25:-0.26884, 24:-0.88421, 23:-0.51860, 22:-0.60094, 21:-0.11686, 20: 0.87890, 19: 0.07059, 18: 0.39134,
                17:-0.55651, 16: 0.13730, 15:-0.17545, 14: 0.49889, 13:-0.85858, 12: 0.59514, 11: 0.95642, 10: 0.10691,  9:-0.25181,
                 8:-0.84173,  7: 0.08908,  6: 0.32408,  5: 0.00504,  4: 0.40086,  3: 0.10721,  2:-0.32286,  1:-0.21036
    46 |      | 45:-0.84667, 44:-0.62786, 43:-0.41704, 42:-0.83551, 41: 0.33164, 40: 0.43388, 39: 0.29960, 38: 0.23521, 37: 0.68035,
                36:-0.96258
    47 |      | 45: 0.32511, 44: 0.97693, 43:-0.65648, 42:-0.64544, 41: 0.75701, 40: 0.93756, 39: 0.14994, 38:-0.50060, 37: 0.74377,
                36:-0.62645
    48 |      | 45:-0.61596, 44:-0.08676, 43:-0.13242, 42:-0.23539, 41: 0.63622, 40:-0.19468, 39:-0.46867, 38:-0.10196, 37:-0.57207,
                36: 0.15439
    49 |      | 45: 0.20023, 44: 0.59935, 43: 0.76977, 42: 0.08414, 41:-0.12223, 40: 0.64470, 39: 0.82556, 38:-0.93603, 37: 0.32865,
                36: 0.62505
    50 |      | 45:-0.51451, 44:-0.74151, 43:-0.93121, 42:-0.10685, 41: 0.72369, 40:-0.88635, 39:-0.07669, 38: 0.68322, 37: 0.45372,
                36:-0.85717
    51 |      | 45:-0.07834, 44: 0.73345, 43:-0.59972, 42: 0.31083, 41:-0.80749, 40:-0.33256, 39: 0.00284, 38:-0.64409, 37: 0.29978,
                36:-0.78411
    52 |      | 45: 0.09391, 44:-0.82134, 43: 0.71081, 42: 0.84399, 41:-0.01053, 40:-0.28257, 39: 0.64068, 38:-0.25211, 37:-0.79901,
                36: 0.30137
    53 |      | 45: 0.61919, 44:-0.36259, 43: 0.89215, 42:-0.35575, 41: 0.50584, 40:-0.43419, 39:-0.54515, 38:-0.42778, 37:-0.10697,
                36:-0.16746
    54 |      | 45: 0.10111, 44:-0.51256, 43: 0.75994, 42:-0.13034, 41:-0.90606, 40: 0.75573, 39:-0.21897, 38:-0.37059, 37:-0.55675,
                36: 0.52910
    55 |      | 45: 0.46409, 44: 0.49321, 43: 0.98718, 42:-0.13034, 41: 0.80401, 40: 0.23112, 39:-0.66735, 38: 0.65911, 37:-0.55437,
                36:-0.18863
    56 |      | 45: 0.42412, 44: 0.16239, 43: 0.97339, 42:-0.99542, 41: 0.89239, 40: 0.16276, 39:-0.08286, 38:-0.14145, 37:-0.28355,
                36: 0.20859
    57 |      | 45:-0.15506, 44:-0.97308, 43:-0.79369, 42: 0.20212, 41:-0.51671, 40:-0.77667, 39:-0.91681, 38:-0.22922, 37:-0.61370,
                36:-0.93359
    58 |      | 45:-0.47429, 44: 0.52464, 43: 0.13340, 42:-0.95935, 41:-0.53130, 40: 0.68322, 39: 0.69909, 38:-0.79235, 37: 0.41087,
                36: 0.42167
    59 |      | 45:-0.82470, 44: 0.79742, 43: 0.85083, 42:-0.31925, 41:-0.02658, 40: 0.48900, 39: 0.53795, 38:-0.72485, 37: 0.39824,
                36: 0.06272
    60 |      | 45:-0.53215, 44: 0.63463, 43:-0.80456, 42: 0.07486, 41: 0.51543, 40: 0.66363, 39: 0.69103, 38:-0.45280, 37: 0.10007,
                36: 0.26768
    61 |      | 45: 0.23618, 44: 0.94128, 43: 0.44560, 42: 0.79925, 41: 0.96204, 40: 0.33305, 39:-0.94916, 38: 0.17710, 37: 0.64190,
                36:-0.33055
    62 |      | 45: 0.01523, 44:-0.15250, 43:-0.97876, 42: 0.11582, 41: 0.10062, 40:-0.00778, 39: 0.82562, 38:-0.33641, 37:-0.45177,
                36: 0.45885
    63 |      | 45:-0.35087, 44: 0.09012, 43: 0.98193, 42: 0.80224, 41:-0.56438, 40:-0.49077, 39:-0.40379, 38: 0.72326, 37:-0.75616,
                36: 0.78051
    64 |      | 45: 0.76653, 44: 0.09934, 43:-0.51909, 42: 0.89422, 41:-0.11423, 40: 0.50108, 39:-0.96765, 38:-0.13565, 37: 0.41813,
                36:-0.37388
    65 |      | 45:-0.63952, 44:-0.68316, 43:-0.11844, 42:-0.62230, 41: 0.84497, 40: 0.99707, 39: 0.61650, 38:-0.68114, 37: 0.16538,
                36: 0.85766
    66 |      | 45: 0.71477, 44:-0.78137, 43:-0.45878, 42:-0.47343, 41: 0.34312, 40:-0.31968, 39: 0.99506, 38: 0.01254, 37: 0.25370,
                36: 0.11313
    67 |      | 45: 0.14499, 44:-0.41539, 43: 0.76739, 42: 0.99451, 41:-0.85333, 40: 0.71160, 39:-0.61547, 38:-0.03494, 37:-0.68108,
                36: 0.29051
    68 |      | 45: 0.28275, 44: 0.62450, 43: 0.75811, 42: 0.28214, 41: 0.73150, 40: 0.93127, 39: 0.85156, 38:-0.95740, 37:-0.91913,
                36: 0.72814
    69 |      | 45: 0.36186, 44: 0.50261, 43: 0.12656, 42: 0.12284, 41:-0.49101, 40: 0.28703, 39: 0.95892, 38:-0.52110, 37: 0.65062,
                36: 0.92401
-------|------|---------------------------------------------------------------------------------------------------------------------


layer definition section :

layer | unitNo.
------|----------------------------------------------------------------------------------------------------------------------------
    2 | 36, 37, 38, 39, 40, 41, 42, 43, 44, 45
    3 | 46, 47, 48, 49, 50, 51, 52, 53, 54, 55, 56, 57, 58, 59, 60, 61, 62, 63, 64, 65, 66, 67, 68, 69
------|----------------------------------------------------------------------------------------------------------------------------
